digraph Tree {
node [shape=box, style="filled", color="black"] ;
0 [label="71 <= 0.5\ngini = 0.497\nsamples = 4879\nvalue = [2253, 2626]\nclass = positive", fillcolor="#399de524"] ;
1 [label="126 <= 0.5\ngini = 0.497\nsamples = 3842\nvalue = [2076, 1766]\nclass = negative", fillcolor="#e5813926"] ;
0 -> 1 [labeldistance=2.5, labelangle=45, headlabel="True"] ;
2 [label="gini = 0.445\nsamples = 2066\nvalue = [1375, 691]\nclass = negative", fillcolor="#e581397f"] ;
1 -> 2 ;
3 [label="gini = 0.478\nsamples = 1776\nvalue = [701, 1075]\nclass = positive", fillcolor="#399de559"] ;
1 -> 3 ;
4 [label="113 <= 0.5\ngini = 0.283\nsamples = 1037\nvalue = [177, 860]\nclass = positive", fillcolor="#399de5cb"] ;
0 -> 4 [labeldistance=2.5, labelangle=-45, headlabel="False"] ;
5 [label="gini = 0.236\nsamples = 944\nvalue = [129, 815]\nclass = positive", fillcolor="#399de5d7"] ;
4 -> 5 ;
6 [label="gini = 0.499\nsamples = 93\nvalue = [48, 45]\nclass = negative", fillcolor="#e5813910"] ;
4 -> 6 ;
}